digraph Tree {
node [shape=box, style="filled", color="black"] ;
0 [label="worst perimeter <= 105.95\ngini = 0.473\nsamples = 398\nvalue = [153, 245]\nclass = benign", fillcolor="#b5daf5"] ;
1 [label="worst concave points <= 0.159\ngini = 0.082\nsamples = 234\nvalue = [10, 224]\nclass = benign", fillcolor="#42a1e6"] ;
0 -> 1 [labeldistance=2.5, labelangle=45, headlabel="True"] ;
2 [label="worst concave points <= 0.135\ngini = 0.043\nsamples = 229\nvalue = [5, 224]\nclass = benign", fillcolor="#3d9fe6"] ;
1 -> 2 ;
3 [label="smoothness error <= 0.003\ngini = 0.018\nsamples = 218\nvalue = [2, 216]\nclass = benign", fillcolor="#3b9ee5"] ;
2 -> 3 ;
4 [label="area error <= 20.585\ngini = 0.375\nsamples = 4\nvalue = [1, 3]\nclass = benign", fillcolor="#7bbeee"] ;
3 -> 4 ;
5 [label="gini = 0.0\nsamples = 1\nvalue = [1, 0]\nclass = malignant", fillcolor="#e58139"] ;
4 -> 5 ;
6 [label="gini = 0.0\nsamples = 3\nvalue = [0, 3]\nclass = benign", fillcolor="#399de5"] ;
4 -> 6 ;
7 [label="worst texture <= 33.27\ngini = 0.009\nsamples = 214\nvalue = [1, 213]\nclass = benign", fillcolor="#3a9de5"] ;
3 -> 7 ;
8 [label="gini = 0.0\nsamples = 196\nvalue = [0, 196]\nclass = benign", fillcolor="#399de5"] ;
7 -> 8 ;
9 [label="worst texture <= 33.56\ngini = 0.105\nsamples = 18\nvalue = [1, 17]\nclass = benign", fillcolor="#45a3e7"] ;
7 -> 9 ;
10 [label="gini = 0.0\nsamples = 1\nvalue = [1, 0]\nclass = malignant", fillcolor="#e58139"] ;
9 -> 10 ;
11 [label="gini = 0.0\nsamples = 17\nvalue = [0, 17]\nclass = benign", fillcolor="#399de5"] ;
9 -> 11 ;
12 [label="mean texture <= 20.785\ngini = 0.397\nsamples = 11\nvalue = [3, 8]\nclass = benign", fillcolor="#83c2ef"] ;
2 -> 12 ;
13 [label="gini = 0.0\nsamples = 8\nvalue = [0, 8]\nclass = benign", fillcolor="#399de5"] ;
12 -> 13 ;
14 [label="gini = 0.0\nsamples = 3\nvalue = [3, 0]\nclass = malignant", fillcolor="#e58139"] ;
12 -> 14 ;
15 [label="gini = 0.0\nsamples = 5\nvalue = [5, 0]\nclass = malignant", fillcolor="#e58139"] ;
1 -> 15 ;
16 [label="worst texture <= 20.645\ngini = 0.223\nsamples = 164\nvalue = [143, 21]\nclass = malignant", fillcolor="#e99456"] ;
0 -> 16 [labeldistance=2.5, labelangle=-45, headlabel="False"] ;
17 [label="worst radius <= 17.74\ngini = 0.42\nsamples = 20\nvalue = [6, 14]\nclass = benign", fillcolor="#8ec7f0"] ;
16 -> 17 ;
18 [label="gini = 0.0\nsamples = 13\nvalue = [0, 13]\nclass = benign", fillcolor="#399de5"] ;
17 -> 18 ;
19 [label="fractal dimension error <= 0.002\ngini = 0.245\nsamples = 7\nvalue = [6, 1]\nclass = malignant", fillcolor="#e9965a"] ;
17 -> 19 ;
20 [label="gini = 0.0\nsamples = 1\nvalue = [0, 1]\nclass = benign", fillcolor="#399de5"] ;
19 -> 20 ;
21 [label="gini = 0.0\nsamples = 6\nvalue = [6, 0]\nclass = malignant", fillcolor="#e58139"] ;
19 -> 21 ;
22 [label="mean concave points <= 0.05\ngini = 0.092\nsamples = 144\nvalue = [137, 7]\nclass = malignant", fillcolor="#e68743"] ;
16 -> 22 ;
23 [label="concave points error <= 0.01\ngini = 0.484\nsamples = 17\nvalue = [10, 7]\nclass = malignant", fillcolor="#f7d9c4"] ;
22 -> 23 ;
24 [label="area error <= 21.08\ngini = 0.165\nsamples = 11\nvalue = [10, 1]\nclass = malignant", fillcolor="#e88e4d"] ;
23 -> 24 ;
25 [label="gini = 0.0\nsamples = 1\nvalue = [0, 1]\nclass = benign", fillcolor="#399de5"] ;
24 -> 25 ;
26 [label="gini = 0.0\nsamples = 10\nvalue = [10, 0]\nclass = malignant", fillcolor="#e58139"] ;
24 -> 26 ;
27 [label="gini = 0.0\nsamples = 6\nvalue = [0, 6]\nclass = benign", fillcolor="#399de5"] ;
23 -> 27 ;
28 [label="gini = 0.0\nsamples = 127\nvalue = [127, 0]\nclass = malignant", fillcolor="#e58139"] ;
22 -> 28 ;
}